{"node_count":[3,19,19,9],"input_data":[false,false,false,false,false,false,false,false,false,false,false,false,false,false,false,false,false,false,false],"alpha":0.1,"gamma":0.8,"weights":[[[2.6056335e29,6.141483e28,6.581662e28,7.513153e28,1.818452e29,7.938802e28,9.243932e28,6.368806e28,2.6294342e28,1.0156604e29,7.2085196e28,1.7990743e29,1.1686124e29,8.677312e28,1.0515233e29,1.1418498e29,6.6605707e28,2.4739973e28,5.6092652e14,6.1041833e28,8.840365e27,1.0973063e28,1.25524e28,4.1014e28,1.3351827e28,1.5788323e28,1.0577648e28,4.988588e27,1.4618884e28,1.3873804e28,3.7803993e28,2.3359176e28,1.2755269e28,2.0564794e28,2.261973e28,1.275028e28,4.6102605e27,1.0329737e14,6.435066e28,1.0940493e28,1.0090004e28,1.3406797e28,4.189564e28,1.4401665e28,1.6486002e28,1.1242157e28,5.570123e27,1.5702121e28,1.4324256e28,4.0758164e28,2.5455737e28,1.436692e28,2.1531507e28,2.447086e28,1.3441228e28,4.80302e27,1.1040366e14,7.2408324e28,1.2737495e28,1.3644855e28,1.336463e28,4.886787e28,1.6731424e28,1.9740892e28,1.3199237e28,6.094875e27,1.8690908e28,1.6838594e28,4.5740346e28,2.8769445e28,1.6264476e28,2.4660115e28,2.7151586e28,1.5586568e28,5.5789164e27,1.2701677e14,1.7231422e29,4.253525e28,4.518559e28,5.1951254e28,1.1861083e29,5.5338055e28,6.41766e28,4.427417e28,1.8708009e28,7.1952474e28,4.9218624e28,1.2796605e29,8.076076e28,5.8753686e28,7.127143e28,7.5900708e28,4.5203767e28,1.7081565e28,3.7841672e14,7.351243e28,1.3342717e28,1.4432253e28,1.6483093e28,5.125453e28,1.4851995e28,2.0388853e28,1.3861151e28,6.20927e27,2.0125227e28,1.7565383e28,4.7612906e28,2.8200025e28,1.643918e28,2.6534489e28,2.840419e28,1.6183889e28,5.898105e27,1.3391889e14,8.245652e28,1.5643374e28,1.6464579e28,1.9312324e28,5.7014925e28,2.0281615e28,2.0171227e28,1.6323351e28,6.6103834e27,2.398218e28,2.037517e28,4.761253e28,3.2897658e28,1.9500087e28,3.0008958e28,3.3719675e28,1.8823892e28,6.430239e27,1.5615162e14,6.2450024e28,1.0648136e28,1.135063e28,1.307768e28,4.273049e28,1.3950754e28,1.6610052e28,9.5983994e27,5.162026e27,1.5574842e28,1.4438974e28,3.969594e28,2.4172316e28,1.3048373e28,2.1248345e28,2.3212648e28,1.3311201e28,4.7885212e27,1.076429e14,1.8741283e28,5.2943974e27,6.3421795e27,6.449151e27,1.8934999e28,6.405752e27,5.576845e27,5.405003e27,1.8016328e27,9.590847e27,6.463907e27,1.1790762e28,9.449416e27,4.7462646e27,9.333843e27,1.1365272e28,6.1754705e27,2.1565435e27,4.6875256e13,1.0039578e29,1.6172879e28,1.7292417e28,1.9818599e28,7.0513805e28,2.1429277e28,2.5329683e28,1.692965e28,8.449935e27,2.4190882e28,2.293505e28,6.362896e28,3.873224e28,2.006652e28,3.3969873e28,3.736039e28,2.1091907e28,7.6051617e27,1.708765e14,5.8689453e28,1.3813176e28,1.4453047e28,1.6839526e28,4.074298e28,1.7890218e28,2.108564e28,1.4349125e28,6.1021564e27,2.2865115e28,1.3407618e28,4.5115945e28,2.7454583e28,1.9325284e28,2.4220312e28,2.6594208e28,1.4896694e28,5.655928e27,1.27211235e14,1.6870445e29,3.9685715e28,4.2771016e28,4.8596358e28,1.25027e29,5.1600633e28,5.7318153e28,4.1376827e28,1.678112e28,6.60881e28,4.844356e28,1.067848e29,7.993182e28,5.252284e28,7.0895556e28,7.5836394e28,4.455132e28,1.6056931e28,3.5910044e14,1.0555689e29,2.4797843e28,2.6977879e28,3.0588727e28,7.61115e28,3.1375542e28,3.697242e28,2.5712263e28,1.0681466e28,4.109807e28,2.9842492e28,7.990543e28,4.0724994e28,3.3664868e28,4.3315345e28,4.8619516e28,2.7428787e28,1.0284047e28,2.218073e14,8.388102e28,1.236908e28,1.3716072e28,1.524743e28,5.149034e28,1.5591345e28,1.8196554e28,1.258003e28,5.5442584e27,1.7009682e28,1.7930428e28,4.2101437e28,2.8930993e28,1.5781883e28,2.6269117e28,2.9593871e28,1.6775636e28,5.7724136e27,1.3826343e14,8.749227e28,2.0347216e28,2.165805e28,2.4681101e28,6.0324374e28,2.6773827e28,3.0942525e28,2.1058406e28,8.952677e27,3.3575076e28,2.4387032e28,6.5332755e28,3.9902377e28,2.8070096e28,2.9556118e28,4.029782e28,2.2535187e28,8.3999525e27,1.8892036e14,1.0462103e29,2.4353541e28,2.6387505e28,2.9582221e28,6.972548e28,3.1475158e28,3.7690333e28,2.5152226e28,1.0955738e28,4.0200387e28,2.9288858e28,7.501068e28,4.9019845e28,3.4222017e28,4.3860943e28,3.8991425e28,2.7091603e28,1.0033457e28,2.1701817e14,5.3427924e28,1.2563139e28,1.3364078e28,1.5422184e28,3.6147007e28,1.6305474e28,1.9261132e28,1.30874e28,5.645139e27,2.0806182e28,1.466629e28,4.0836234e28,2.4882286e28,1.7934182e28,2.2120495e28,2.435852e28,1.1223608e28,5.1667394e27,1.1639576e14,2.2289766e28,5.202903e27,5.29678e27,6.15152e27,1.6010493e28,6.730626e27,6.613723e27,5.3598074e27,2.2980775e27,8.552915e27,6.3870656e27,1.5308567e28,1.1060984e28,6.788907e27,9.553135e27,1.046854e28,5.9338825e27,1.6735913e27,4.5082414e13,0.95399326,0.4360171,0.46503484,0.8027626,0.64395165,0.39367783,0.6830269,0.509016,0.4617052,0.9923438,0.46821952,0.03981197,0.50945336,0.87174124,0.8903712,0.9448446,0.42965388,0.3314948,0.7253949],19,19],[[-43391240.0,4.5170627e14,-12731265.0,4.5170607e14,4.5170708e14,4.5170768e14,4.5170735e14,-11736899.0,-35394864.0,-14664290.0,4.5170758e14,4.5170735e14,4.5170644e14,4.517062e14,4.5170765e14,4.5170735e14,-31538598.0,4.5170658e14,4.5170812e14,-8052453.5,8.318365e13,-2361341.8,8.318359e13,8.318383e13,8.318394e13,8.318387e13,-2178162.5,-6568238.5,-2721569.5,8.318391e13,8.318387e13,8.31837e13,8.318364e13,8.318391e13,8.318385e13,-5853630.5,8.318375e13,8.3184046e13,-8642101.0,8.890652e13,-2532930.8,8.890646e13,8.890669e13,8.890686e13,8.8906746e13,-2337813.2,-7048833.5,-2921208.2,8.890681e13,8.8906746e13,8.890657e13,8.890651e13,8.890684e13,8.890673e13,-6283201.5,8.890661e13,8.890695e13,-10049158.0,1.0228481e14,-2949436.0,1.0228475e14,1.0228502e14,1.0228514e14,1.0228507e14,-2717987.0,-8197544.0,-3395740.5,1.022851e14,1.0228507e14,1.0228487e14,1.0228481e14,1.02285124e14,1.02285066e14,-7303431.0,1.0228492e14,1.0228531e14,-28985848.0,3.0473306e14,-8483791.0,3.0473296e14,3.047336e14,3.0473404e14,3.0473384e14,-7839616.5,-23639042.0,-9798011.0,3.0473394e14,3.047338e14,3.047333e14,3.0473306e14,3.04734e14,3.0473373e14,-21079592.0,3.047334e14,3.0473434e14,-10516151.0,1.0784299e14,-3084078.2,1.0784292e14,1.0784319e14,1.07843315e14,1.0784324e14,-2843958.0,-8577886.0,-3553487.0,1.0784328e14,1.0784324e14,1.07843055e14,1.0784297e14,1.07843315e14,1.0784322e14,-7643762.0,1.07843106e14,1.0784349e14,-12258007.0,1.2574669e14,-3595397.8,1.2574666e14,1.2574691e14,1.2574712e14,1.25746996e14,-3315186.5,-9998748.0,-4142508.5,1.2574705e14,1.25746996e14,1.2574678e14,1.2574668e14,1.2574709e14,1.25746996e14,-8909868.0,1.2574683e14,1.2574729e14,-8353740.5,8.668314e13,-2448730.0,8.668307e13,8.668332e13,8.668345e13,8.668337e13,-2259435.0,-6813717.5,-2823289.2,8.66834e13,8.668338e13,8.668322e13,8.668313e13,8.668342e13,8.668336e13,-6072999.0,8.668325e13,8.668358e13,-3524337.8,3.774791e13,-1035850.8,3.7747893e13,3.7747985e13,3.774805e13,3.774801e13,-952128.0,-2875343.2,-1189594.6,3.7748027e13,3.774801e13,3.7747935e13,3.7747914e13,3.774805e13,3.7747998e13,-2559613.5,3.7747956e13,3.7748073e13,-13323578.0,1.37603966e14,-3905805.5,1.3760385e14,1.3760424e14,1.3760445e14,1.3760433e14,-3603845.5,-10867407.0,-4503092.5,1.3760437e14,1.3760433e14,1.3760404e14,1.3760396e14,1.3760441e14,1.376043e14,-9685909.0,1.3760413e14,1.3760462e14,-9937427.0,1.0244126e14,-2914468.5,1.024412e14,1.02441454e14,1.0244158e14,1.02441505e14,-2688334.0,-8105904.5,-3358943.0,1.0244153e14,1.02441505e14,1.0244133e14,1.0244126e14,1.0244155e14,1.0244149e14,-7223920.5,1.0244139e14,1.02441714e14,-27719716.0,2.8917807e14,-8129805.5,2.891779e14,2.8917854e14,2.891789e14,2.8917867e14,-7497348.0,-22610534.0,-9367951.0,2.8917884e14,2.8917867e14,2.891783e14,2.8917807e14,2.891789e14,2.8917864e14,-20149108.0,2.8917844e14,2.8917924e14,-16723967.0,1.7861814e14,-4903373.0,1.7861808e14,1.7861846e14,1.7861865e14,1.7861858e14,-4523618.5,-13641162.0,-5652410.0,1.7861861e14,1.7861858e14,1.786183e14,1.7861814e14,1.7861863e14,1.7861853e14,-12157837.0,1.7861834e14,1.7861888e14,-10935552.0,1.1134144e14,-3211058.2,1.11341315e14,1.1134166e14,1.11341885e14,1.1134171e14,-2956765.8,-8921008.0,-3694117.8,1.1134181e14,1.1134172e14,1.1134149e14,1.1134141e14,1.1134185e14,1.1134172e14,-7945976.0,1.1134153e14,1.1134205e14,-14804760.0,1.521347e14,-4339026.0,1.5213462e14,1.5213499e14,1.5213517e14,1.5213509e14,-4004460.0,-12075313.0,-5003868.5,1.5213514e14,1.5213509e14,1.5213482e14,1.5213469e14,1.5213516e14,1.5213506e14,-10763315.0,1.5213489e14,1.5213538e14,-16622490.0,1.7476126e14,-4870051.5,1.747612e14,1.7476158e14,1.7476187e14,1.747617e14,-4495857.5,-13557512.0,-5618220.0,1.7476175e14,1.747617e14,1.747614e14,1.7476126e14,1.7476178e14,1.7476168e14,-12086080.0,1.7476146e14,1.7476214e14,-9153929.0,9.37317e13,-2683394.2,9.3731655e13,9.373189e13,9.3732016e13,9.373195e13,-2476108.5,-7466451.0,-3093956.2,9.3732e13,9.373195e13,9.373177e13,9.37317e13,9.373201e13,9.373194e13,-6654877.5,9.3731814e13,9.373214e13,-3446547.0,3.6304197e13,-1012683.8,3.6304184e13,3.6304255e13,3.6304314e13,3.630429e13,-932178.4,-2811773.2,-1164602.5,3.6304297e13,3.630429e13,3.630422e13,3.6304193e13,3.6304306e13,3.630428e13,-2504333.0,3.6304234e13,3.6304356e13,0.337278,0.13586521,0.661965,0.9414666,0.6336109,0.19553185,0.7173811,0.18362659,0.2642787,0.77214617,0.6340171,0.39076775,0.22534472,0.28911078,0.07054895,0.0065045357,0.36138403,0.19791889,0.52910835],19,19],[[-1.4320643,0.019968629,-0.01574399,-1.7659224,-9.477822,-0.71633744,0.24381675,-0.53998095,-1.3481104,-0.817288,-1.7137932,-0.904715,-1.4089036,-1.5481949,-0.1517994,-0.558638,-0.10292437,0.36766428,-0.47938648,18931200.0,18934806.0,18934236.0,18931578.0,-838.25336,18931264.0,18935176.0,18931768.0,18930736.0,18931856.0,18930554.0,18932598.0,18931666.0,18930932.0,18934192.0,18933072.0,18933784.0,18932496.0,18932910.0,-1.2895544,1.0279435,1.1807214,-1.0369056,-9.774076,-0.4993908,0.09035484,0.0067729214,-0.9097962,-1.0059513,-1.1663648,0.2577299,-0.37161767,-0.9602506,1.1743534,-0.35214955,-0.33545983,0.16294478,0.25043505,18931196.0,18934800.0,18934228.0,18931574.0,-836.91034,18931258.0,18935170.0,18931762.0,18930730.0,18931850.0,18930548.0,18932592.0,18931660.0,18930928.0,18934186.0,18933064.0,18933778.0,18932490.0,18932904.0,18931216.0,18934824.0,18934258.0,18931594.0,-847.97455,18931280.0,18935194.0,18931784.0,18930752.0,18931872.0,18930568.0,18932616.0,18931682.0,18930952.0,18934212.0,18933088.0,18933804.0,18932514.0,18932930.0,18931228.0,18934838.0,18934272.0,18931606.0,-851.3903,18931294.0,18935208.0,18931798.0,18930762.0,18931884.0,18930580.0,18932628.0,18931694.0,18930960.0,18934226.0,18933100.0,18933816.0,18932528.0,18932944.0,18931220.0,18934832.0,18934266.0,18931600.0,-852.08295,18931286.0,18935200.0,18931790.0,18930756.0,18931878.0,18930574.0,18932622.0,18931686.0,18930956.0,18934218.0,18933092.0,18933808.0,18932520.0,18932936.0,0.5578094,0.20921104,-2.359054,-0.11783111,-4.679119,0.02221788,0.9397544,0.6801308,-0.50210595,-0.4169598,-0.23610778,-0.1369158,-1.1028178,0.1153016,0.06161354,-0.14564344,-0.48738822,0.3897034,-0.9524065,-1.5541769,-0.02188605,0.40611398,-0.99120337,-9.404241,-1.4127513,0.26504385,-0.65584356,-0.95873696,-0.7257036,-1.1129595,-0.12732394,-1.282866,-1.2004875,0.56111276,-1.1254281,-0.33420357,-0.2596345,0.031014903,0.9917413,0.5924281,-2.6087682,-0.66062206,-4.571498,-0.5416416,0.6898169,0.5273758,-0.34311926,0.036094293,0.35472983,-0.45521617,-0.62915796,-0.74421656,-0.18637258,0.2042529,-1.0600058,0.2218448,-0.7390953,18931224.0,18934834.0,18934268.0,18931604.0,-847.279,18931290.0,18935204.0,18931794.0,18930760.0,18931882.0,18930578.0,18932626.0,18931690.0,18930960.0,18934222.0,18933096.0,18933812.0,18932524.0,18932940.0,18931220.0,18934832.0,18934266.0,18931600.0,-852.15436,18931286.0,18935200.0,18931790.0,18930756.0,18931876.0,18930574.0,18932622.0,18931686.0,18930956.0,18934218.0,18933092.0,18933810.0,18932520.0,18932936.0,18931206.0,18934812.0,18934242.0,18931584.0,-839.0346,18931270.0,18935182.0,18931774.0,18930742.0,18931862.0,18930558.0,18932604.0,18931672.0,18930940.0,18934198.0,18933078.0,18933790.0,18932502.0,18932916.0,18931200.0,18934806.0,18934234.0,18931578.0,-838.06757,18931264.0,18935176.0,18931768.0,18930734.0,18931854.0,18930554.0,18932598.0,18931664.0,18930932.0,18934192.0,18933070.0,18933784.0,18932496.0,18932910.0,18931226.0,18934838.0,18934268.0,18931606.0,-846.66205,18931290.0,18935206.0,18931796.0,18930762.0,18931882.0,18930580.0,18932626.0,18931692.0,18930960.0,18934224.0,18933098.0,18933814.0,18932526.0,18932942.0,18931218.0,18934830.0,18934266.0,18931598.0,-852.6325,18931284.0,18935198.0,18931790.0,18930754.0,18931876.0,18930572.0,18932620.0,18931686.0,18930952.0,18934216.0,18933090.0,18933808.0,18932520.0,18932936.0,0.8117637,0.35821086,-2.5370097,-0.93018186,-5.001464,-0.48426476,0.15857697,-0.18029884,-0.14415628,-0.5011374,-0.27310646,-0.7366862,-0.7424212,-0.57320243,-1.078237,-0.08637506,-0.859591,-0.25396532,-1.3038769,18931210.0,18934818.0,18934250.0,18931588.0,-844.53265,18931274.0,18935188.0,18931778.0,18930746.0,18931866.0,18930562.0,18932610.0,18931676.0,18930944.0,18934204.0,18933080.0,18933796.0,18932506.0,18932924.0,18931238.0,18934852.0,18934286.0,18931618.0,-853.7231,18931304.0,18935222.0,18931810.0,18930774.0,18931896.0,18930592.0,18932642.0,18931706.0,18930972.0,18934240.0,18933112.0,18933830.0,18932540.0,18932956.0],19,19],[[9993.015,-5.6655145,-3.2111087,-3.6402216,7173.582,-2.5224698,-1.3587775,-5308.4116,3647.375,9995.42,-6.770739,-5.498383,-2.6429548,7173.1406,-2.0755348,-0.10698652,-5308.137,3647.0962,9997.002,-6.031441,-6.8369985,-1.9720049,7170.88,-1.2885399,-2.979792,-5307.1343,3647.8623,9993.298,-6.770615,-4.2234635,-3.3938951,7173.297,-1.8534899,-0.84855604,-5308.234,3647.9531,-3.2133827,-1.1050001,1.7699243,-0.24817184,5.24722,0.41193262,1.8568901,0.07241957,-2.3425257,9993.728,-6.26699,-4.074117,-2.2577715,7172.877,-2.3422582,-1.0071349,-5308.2407,3647.164,9995.474,-6.2317133,-5.271645,-2.1992693,7173.3193,-2.8517983,-0.48676825,-5308.1606,3647.0908,9993.616,-5.978521,-4.5147233,-2.2919016,7173.408,-2.005478,-0.3042884,-5308.186,3647.1572,9992.749,-5.954888,-3.9099872,-2.435626,7173.7295,-2.459411,-1.2098391,-5308.0386,3647.6426,9993.471,-6.6469626,-4.113541,-2.9908972,7173.575,-2.592786,-0.6420264,-5307.9487,3647.7153,9992.724,-6.363334,-3.686809,-3.216033,7173.3,-2.2378476,-1.0997443,-5308.5317,3647.6382,9994.259,-6.332314,-5.08439,-2.6042147,7173.0674,-2.487613,-0.19761992,-5308.225,3647.2188,9993.497,-6.365318,-4.400707,-2.5470457,7173.426,-2.577119,-0.961082,-5307.944,3647.6714,9992.786,-6.347134,-4.1450133,-2.5487394,7173.5674,-2.17945,-1.2184374,-5308.362,3647.712,9995.181,-6.9612556,-6.048673,-1.7981138,7172.916,-2.1051445,0.4615445,-5308.031,3647.5054,9993.834,-5.8452888,-3.6730914,-2.8840723,7174.035,-1.8569193,-0.5938659,-5307.7417,3647.77,9995.034,-6.2386923,-5.229057,-1.9997377,7172.913,-2.3372877,-0.35605955,-5307.86,3647.5747,9994.414,-6.9253488,-5.467381,-2.479474,7172.75,-2.302612,0.009396076,-5308.28,3647.185,9994.944,-6.5016217,-5.1823688,-1.7262087,7172.4043,-2.7800744,-0.040973186,-5307.688,3647.8325],9,19]],"biases":[[[3.953051e29,8.389858e28,8.990726e28,1.0270801e29,2.7558333e29,1.0910349e29,1.2754884e29,8.721788e28,3.7593898e28,1.3628449e29,1.0286651e29,2.6523394e29,1.6884517e29,1.1567679e29,1.5081228e29,1.6445796e29,9.491033e28,3.4958388e28,7.873901e14],19,null],[[-60921176.0,6.340734e14,-17867212.0,6.3407293e14,6.3407475e14,6.3407555e14,6.340753e14,-16477612.0,-49692120.0,-20588406.0,6.340754e14,6.340753e14,6.340737e14,6.340733e14,6.340755e14,6.3407515e14,-44282936.0,6.340743e14,6.340763e14],19,null],[[18931254.0,18934874.0,18934316.0,18931636.0,-875.2319,18931324.0,18935244.0,18931828.0,18930790.0,18931914.0,18930608.0,18932662.0,18931724.0,18930988.0,18934264.0,18933128.0,18933852.0,18932562.0,18932980.0],19,null],[[9997.098,-6.4907594,-7.4998794,-0.74569416,7171.216,-2.7761376,1.0234113,-5307.989,3648.018],9,null]],"layers":[[[1.0,0.0,0.0,0.0,0.0,0.0,0.0,0.0,0.0,0.0,0.0,0.0,0.0,0.0,0.0,0.0,0.0,0.0,0.0],19,null],[[0.0,1.0,0.0,1.0,1.0,1.0,1.0,0.0,0.0,0.0,1.0,1.0,1.0,1.0,1.0,1.0,0.0,1.0,1.0],19,null],[[1.0,1.0,1.0,1.0,0.0,1.0,1.0,1.0,1.0,1.0,1.0,1.0,1.0,1.0,1.0,1.0,1.0,1.0,1.0],19,null],[[1.0,0.0,0.0,7.2457395e-21,1.0,1.1242823e-19,0.000006671867,0.0,1.0],9,null]],"dW":[[[1.82593e26,4.2820745e25,4.582072e25,4.467188e25,1.4367505e26,5.543117e25,6.4633296e25,4.4539e25,1.6492329e25,7.0727524e25,5.0384856e25,1.2189157e26,8.8542075e25,5.413186e25,6.431765e25,8.68351e25,4.669215e25,1.8660712e25,196392400000.0,4.406247e25,6.330234e24,7.657516e24,9.0102643e24,2.9765272e25,9.5054954e24,1.1587923e25,7.703764e24,3.6854903e24,1.0450532e25,9.912605e24,2.8001401e25,1.7283756e25,8.8605574e24,1.4731584e25,1.6910496e25,9.069839e24,3.5129242e24,36972302000.0,4.2255823e25,6.781846e24,6.444006e24,8.331773e24,2.8982886e25,9.010579e24,1.1026395e25,7.422162e24,3.4743477e24,9.856953e24,9.441392e24,2.6651238e25,1.6462095e25,8.4143486e24,1.4002669e25,1.6191049e25,8.684166e24,3.3459021e24,35214184000.0,1.7507416e26,3.7945326e25,4.037551e25,3.7392438e25,1.4236908e26,4.9456127e25,5.7397925e25,3.971359e25,1.467215e25,6.1040534e25,4.7618527e25,1.12431605e26,8.30285e25,4.115439e25,5.894296e25,8.132074e25,4.361556e25,1.6875651e25,177610820000.0,4.8000217e25,1.2452079e25,1.3489599e25,1.545874e25,3.5656323e25,1.6244397e25,1.8891035e25,1.2907115e25,5.6275995e24,2.1755972e25,1.333972e25,3.947536e25,2.4007955e25,1.6565502e25,2.094993e25,2.3384652e25,1.2710809e25,5.401407e24,56847712000.0,4.3585497e25,7.3091915e24,7.81315e24,9.230414e24,2.9967137e25,8.183572e24,1.1352627e25,7.487631e24,3.7024564e24,1.0495434e25,9.884642e24,2.825343e25,1.7235006e25,8.8113974e24,1.4679444e25,1.6862675e25,9.044258e24,3.503e24,36867756000.0,2.550479e25,4.3132595e24,4.6221018e24,4.9180645e24,1.7647971e25,5.419648e24,5.583815e24,4.6708626e24,2.1660426e24,6.1312164e24,5.78415e24,1.6502999e25,1.0085384e25,4.9530424e24,8.4977025e24,9.86756e24,5.2923836e24,2.049844e24,21573972000.0,3.9155036e25,6.56943e24,7.141679e24,8.2002666e24,2.6507194e25,8.277534e24,1.0598836e25,5.921807e24,3.3237153e24,9.45422e24,8.898657e24,2.5382628e25,1.5515908e25,7.9185306e24,1.3261473e25,1.5180806e25,8.1420994e24,3.153606e24,33190595000.0,1.2098389e26,2.8764638e25,3.0655606e25,2.7491616e25,1.05203405e26,3.7369894e25,4.3488896e25,3.0002243e25,1.0239849e25,4.7917106e25,3.5334568e25,7.774944e25,6.1610147e25,2.9888937e25,4.0700417e25,6.0364913e25,3.2376229e25,1.2522344e25,131793590000.0,7.247545e25,1.1615032e25,1.2439722e25,1.4238805e25,5.1735485e25,1.5122965e25,1.8678711e25,1.2334013e25,6.181078e24,1.7363447e25,1.6436532e25,4.6836205e25,2.8659044e25,1.4197982e25,2.4363602e25,2.8040195e25,1.5039089e25,5.824914e24,61305745000.0,3.6846599e25,8.627988e24,9.2217395e24,1.0609253e25,2.5950882e25,1.1185817e25,1.3042714e25,8.990957e24,3.9152822e24,1.4272572e25,8.3563353e24,2.9128181e25,1.7671129e25,1.1548543e25,1.5324328e25,1.7498641e25,9.3293053e24,3.765614e24,39631155000.0,1.5064792e26,3.5441384e25,3.7873843e25,3.5795021e25,1.2607566e26,4.6071564e25,5.36436e25,3.7005725e25,1.3209222e25,5.8827045e25,4.3332656e25,9.688147e25,7.5555383e25,3.8928224e25,5.2778736e25,7.3924423e25,3.97609e25,1.5465434e25,162769100000.0,3.0424833e25,7.1243516e24,7.6145934e24,8.76024e24,2.1719558e25,9.236392e24,1.0769688e25,7.424066e24,3.2329573e24,1.1785233e25,8.282985e24,2.3900937e25,1.2030964e25,9.5359665e24,1.275635e25,1.4548878e25,7.803277e24,3.1093356e24,32724304000.0,1.1593101e26,2.2233854e25,2.3816377e25,1.935777e25,8.668759e25,2.8806908e25,3.4264756e25,2.3293764e25,7.851021e24,3.4612666e25,2.9141274e25,6.017866e25,5.081149e25,2.4909632e25,3.1456502e25,4.979913e25,2.670948e25,1.0327531e25,108693690000.0,1.5239458e26,3.565818e25,3.8094664e25,3.59225e25,1.2723375e26,4.6221615e25,5.381868e25,3.7178827e25,1.3257097e25,5.8935097e25,4.3599498e25,1.0107478e26,7.623461e25,3.90692e25,5.128016e25,7.446387e25,4.005051e25,1.5560011e25,163763900000.0,2.8473045e25,6.6672384e24,7.169013e24,8.2478944e24,1.9862188e25,8.643703e24,1.0078703e25,6.947723e24,3.0438445e24,1.1029072e25,7.8426505e24,2.2312093e25,1.3888494e25,8.978143e24,1.1811959e25,1.1015978e25,7.277499e24,2.9097943e24,30624807000.0,2.6363941e25,6.173373e24,6.6413893e24,7.6407123e24,1.8601282e25,8.00355e24,9.332136e24,6.433082e24,2.819729e24,1.0212111e25,7.173308e24,2.0941579e25,1.2828234e25,8.31709e24,1.1091129e25,1.2531209e25,5.4706725e24,2.694354e24,28356315000.0,-2.2913128e22,-5.491262e21,-5.7808644e21,-6.5176026e21,-1.9774763e22,-7.0609675e21,-8.295155e21,-5.6959856e21,-2.4873448e21,-9.2182013e21,-6.5616743e21,-1.8700448e22,-1.1565944e22,-7.2731974e21,-9.940949e21,-1.1593445e22,-5.9614537e21,-1.8813619e21,-25177732.0,0.0,0.0,0.0,0.0,0.0,0.0,0.0,0.0,0.0,0.0,0.0,0.0,0.0,0.0,0.0,0.0,0.0,0.0,0.0],19,19],[[-7600.5444,158152300000.0,-2233.4463,158152300000.0,158152800000.0,158152820000.0,158152820000.0,-2055.41,-6200.661,-2567.649,158152840000.0,158152820000.0,158152400000.0,158152300000.0,158152820000.0,158152820000.0,-5521.923,158152790000.0,158152880000.0,-1432.0184,29773280000.0,-421.80557,29773277000.0,29773308000.0,29773345000.0,29773339000.0,-387.1661,-1168.5681,-483.45825,29773339000.0,29773339000.0,29773285000.0,29773280000.0,29773340000.0,29773320000.0,-1039.5961,29773290000.0,29773357000.0,-1361.9365,28357487000.0,-399.49164,28357485000.0,28357515000.0,28357542000.0,28357536000.0,-368.366,-1110.921,-460.2542,28357540000.0,28357536000.0,28357489000.0,28357487000.0,28357540000.0,28357521000.0,-989.93427,28357493000.0,28357562000.0,-6871.368,143027490000.0,-2017.347,143027470000.0,143027670000.0,143027700000.0,143027680000.0,-1858.1461,-5605.3643,-2321.4924,143027700000.0,143027680000.0,143027500000.0,143027490000.0,143027700000.0,143027670000.0,-4993.0566,143027670000.0,143027730000.0,-2197.8083,45778620000.0,-644.0337,45778616000.0,45778640000.0,45778674000.0,45778680000.0,-594.41626,-1792.5807,-742.7874,45778678000.0,45778680000.0,45778620000.0,45778620000.0,45778680000.0,45778653000.0,-1597.8298,45778620000.0,45778710000.0,-1425.7405,29689076000.0,-418.0889,29689076000.0,29689113000.0,29689137000.0,29689137000.0,-385.62442,-1162.9369,-481.83298,29689135000.0,29689137000.0,29689080000.0,29689078000.0,29689135000.0,29689123000.0,-1036.3768,29689082000.0,29689156000.0,-834.1524,17373209000.0,-244.49397,17373209000.0,17373225000.0,17373230000.0,17373227000.0,-225.60434,-680.3657,-281.90875,17373227000.0,17373227000.0,17373213000.0,17373213000.0,17373225000.0,17373227000.0,-606.40497,17373219000.0,17373247000.0,-1283.349,26727916000.0,-376.18143,26727911000.0,26727942000.0,26727969000.0,26727965000.0,-347.11093,-1046.754,-433.7333,26727963000.0,26727965000.0,26727920000.0,26727913000.0,26727965000.0,26727948000.0,-932.95575,26727922000.0,26727985000.0,-5099.697,106132010000.0,-1498.0131,106132005000.0,106132020000.0,106132040000.0,106132040000.0,-1378.7799,-4160.3374,-1722.5186,106132046000.0,106132040000.0,106132010000.0,106132010000.0,106132040000.0,106132020000.0,-3705.0386,106132020000.0,106132046000.0,-2370.9207,49368605000.0,-695.3478,49368605000.0,49368654000.0,49368670000.0,49368690000.0,-641.28345,-1933.9117,-801.26025,49368690000.0,49368690000.0,49368610000.0,49368610000.0,49368687000.0,49368658000.0,-1723.3838,49368613000.0,49368744000.0,-1532.5704,31914402000.0,-449.3868,31914398000.0,31914430000.0,31914465000.0,31914461000.0,-414.5137,-1250.0687,-517.93616,31914461000.0,31914461000.0,31914406000.0,31914402000.0,31914461000.0,31914435000.0,-1114.046,31914412000.0,31914484000.0,-6297.059,131076140000.0,-1848.7267,131076140000.0,131076150000.0,131076180000.0,131076180000.0,-1702.6476,-5136.878,-2127.232,131076180000.0,131076180000.0,131076145000.0,131076140000.0,131076180000.0,131076150000.0,-4575.572,131076145000.0,131076194000.0,-1265.5212,26352415000.0,-371.11377,26352413000.0,26352443000.0,26352464000.0,26352460000.0,-342.29593,-1032.253,-427.6954,26352462000.0,26352460000.0,26352419000.0,26352413000.0,26352462000.0,26352447000.0,-919.9184,26352420000.0,26352482000.0,-4206.7734,87529054000.0,-1236.5096,87529054000.0,87529090000.0,87529100000.0,87529140000.0,-1137.3035,-3432.1074,-1420.7444,87529140000.0,87529140000.0,87529060000.0,87529054000.0,87529100000.0,87529095000.0,-3055.8262,87529070000.0,87529140000.0,-6336.2046,131876910000.0,-1860.6768,131876910000.0,131876930000.0,131876954000.0,131876940000.0,-1713.2637,-5168.918,-2140.411,131876954000.0,131876940000.0,131876920000.0,131876910000.0,131876954000.0,131876940000.0,-4603.7207,131876920000.0,131876980000.0,-1184.1779,24661720000.0,-347.14276,24661717000.0,24661740000.0,24661762000.0,24661758000.0,-320.28702,-965.8737,-400.21234,24661758000.0,24661758000.0,24661723000.0,24661717000.0,24661758000.0,24661746000.0,-860.8482,24661725000.0,24661780000.0,-1096.6064,22834936000.0,-321.5857,22834934000.0,22834958000.0,22834975000.0,22834973000.0,-296.60535,-894.4758,-370.6037,22834973000.0,22834973000.0,22834940000.0,22834936000.0,22834973000.0,22834962000.0,-797.125,22834948000.0,22834993000.0,1.0228349,-20275092.0,0.33139804,-20275124.0,-20275252.0,-20275188.0,-20275220.0,0.2831517,0.8410422,0.3498888,-20275156.0,-20275220.0,-20275156.0,-20275220.0,-20275252.0,-20275220.0,0.74150115,-20275124.0,-20275252.0,0.0,0.0,0.0,0.0,0.0,0.0,0.0,0.0,0.0,0.0,0.0,0.0,0.0,0.0,0.0,0.0,0.0,0.0,0.0],19,19],[[0.0,0.0,0.0,0.0,0.0,0.0,0.0,0.0,0.0,0.0,0.0,0.0,0.0,0.0,0.0,0.0,0.0,0.0,0.0,3009.3274,3008.762,3007.3896,3008.8574,1.6700138,3009.2056,3009.0967,3009.0933,3009.2517,3009.117,3009.1812,3008.9468,3009.0781,3009.148,3008.7092,3009.1611,3008.8638,3008.7827,3008.9338,0.0,0.0,0.0,0.0,0.0,0.0,0.0,0.0,0.0,0.0,0.0,0.0,0.0,0.0,0.0,0.0,0.0,0.0,0.0,3009.3274,3008.762,3007.3896,3008.8574,1.6700138,3009.2056,3009.0967,3009.0933,3009.2517,3009.117,3009.1812,3008.9468,3009.0781,3009.148,3008.7092,3009.1611,3008.8638,3008.7827,3008.9338,3009.3274,3008.762,3007.3896,3008.8574,1.6700138,3009.2056,3009.0967,3009.0933,3009.2517,3009.117,3009.1812,3008.9468,3009.0781,3009.148,3008.7092,3009.1611,3008.8638,3008.7827,3008.9338,3009.3274,3008.762,3007.3896,3008.8574,1.6700138,3009.2056,3009.0967,3009.0933,3009.2517,3009.117,3009.1812,3008.9468,3009.0781,3009.148,3008.7092,3009.1611,3008.8638,3008.7827,3008.9338,3009.3274,3008.762,3007.3896,3008.8574,1.6700138,3009.2056,3009.0967,3009.0933,3009.2517,3009.117,3009.1812,3008.9468,3009.0781,3009.148,3008.7092,3009.1611,3008.8638,3008.7827,3008.9338,0.0,0.0,0.0,0.0,0.0,0.0,0.0,0.0,0.0,0.0,0.0,0.0,0.0,0.0,0.0,0.0,0.0,0.0,0.0,0.0,0.0,0.0,0.0,0.0,0.0,0.0,0.0,0.0,0.0,0.0,0.0,0.0,0.0,0.0,0.0,0.0,0.0,0.0,0.0,0.0,0.0,0.0,0.0,0.0,0.0,0.0,0.0,0.0,0.0,0.0,0.0,0.0,0.0,0.0,0.0,0.0,0.0,3009.3274,3008.762,3007.3896,3008.8574,1.6700138,3009.2056,3009.0967,3009.0933,3009.2517,3009.117,3009.1812,3008.9468,3009.0781,3009.148,3008.7092,3009.1611,3008.8638,3008.7827,3008.9338,3009.3274,3008.762,3007.3896,3008.8574,1.6700138,3009.2056,3009.0967,3009.0933,3009.2517,3009.117,3009.1812,3008.9468,3009.0781,3009.148,3008.7092,3009.1611,3008.8638,3008.7827,3008.9338,3009.3274,3008.762,3007.3896,3008.8574,1.6700138,3009.2056,3009.0967,3009.0933,3009.2517,3009.117,3009.1812,3008.9468,3009.0781,3009.148,3008.7092,3009.1611,3008.8638,3008.7827,3008.9338,3009.3274,3008.762,3007.3896,3008.8574,1.6700138,3009.2056,3009.0967,3009.0933,3009.2517,3009.117,3009.1812,3008.9468,3009.0781,3009.148,3008.7092,3009.1611,3008.8638,3008.7827,3008.9338,3009.3274,3008.762,3007.3896,3008.8574,1.6700138,3009.2056,3009.0967,3009.0933,3009.2517,3009.117,3009.1812,3008.9468,3009.0781,3009.148,3008.7092,3009.1611,3008.8638,3008.7827,3008.9338,3009.3274,3008.762,3007.3896,3008.8574,1.6700138,3009.2056,3009.0967,3009.0933,3009.2517,3009.117,3009.1812,3008.9468,3009.0781,3009.148,3008.7092,3009.1611,3008.8638,3008.7827,3008.9338,0.0,0.0,0.0,0.0,0.0,0.0,0.0,0.0,0.0,0.0,0.0,0.0,0.0,0.0,0.0,0.0,0.0,0.0,0.0,3009.3274,3008.762,3007.3896,3008.8574,1.6700138,3009.2056,3009.0967,3009.0933,3009.2517,3009.117,3009.1812,3008.9468,3009.0781,3009.148,3008.7092,3009.1611,3008.8638,3008.7827,3008.9338,3009.3274,3008.762,3007.3896,3008.8574,1.6700138,3009.2056,3009.0967,3009.0933,3009.2517,3009.117,3009.1812,3008.9468,3009.0781,3009.148,3008.7092,3009.1611,3008.8638,3008.7827,3008.9338],19,19],[[0.19436347,0.0,1.6575038,1.0339177,0.76372087,-1.1561329,0.49644682,-1.5712538,-0.123091646,0.19436347,0.0,1.6575038,1.0339177,0.76372087,-1.1561329,0.49644682,-1.5712538,-0.123091646,0.19436347,0.0,1.6575038,1.0339177,0.76372087,-1.1561329,0.49644682,-1.5712538,-0.123091646,0.19436347,0.0,1.6575038,1.0339177,0.76372087,-1.1561329,0.49644682,-1.5712538,-0.123091646,0.0,0.0,0.0,0.0,0.0,0.0,0.0,0.0,0.0,0.19436347,0.0,1.6575038,1.0339177,0.76372087,-1.1561329,0.49644682,-1.5712538,-0.123091646,0.19436347,0.0,1.6575038,1.0339177,0.76372087,-1.1561329,0.49644682,-1.5712538,-0.123091646,0.19436347,0.0,1.6575038,1.0339177,0.76372087,-1.1561329,0.49644682,-1.5712538,-0.123091646,0.19436347,0.0,1.6575038,1.0339177,0.76372087,-1.1561329,0.49644682,-1.5712538,-0.123091646,0.19436347,0.0,1.6575038,1.0339177,0.76372087,-1.1561329,0.49644682,-1.5712538,-0.123091646,0.19436347,0.0,1.6575038,1.0339177,0.76372087,-1.1561329,0.49644682,-1.5712538,-0.123091646,0.19436347,0.0,1.6575038,1.0339177,0.76372087,-1.1561329,0.49644682,-1.5712538,-0.123091646,0.19436347,0.0,1.6575038,1.0339177,0.76372087,-1.1561329,0.49644682,-1.5712538,-0.123091646,0.19436347,0.0,1.6575038,1.0339177,0.76372087,-1.1561329,0.49644682,-1.5712538,-0.123091646,0.19436347,0.0,1.6575038,1.0339177,0.76372087,-1.1561329,0.49644682,-1.5712538,-0.123091646,0.19436347,0.0,1.6575038,1.0339177,0.76372087,-1.1561329,0.49644682,-1.5712538,-0.123091646,0.19436347,0.0,1.6575038,1.0339177,0.76372087,-1.1561329,0.49644682,-1.5712538,-0.123091646,0.19436347,0.0,1.6575038,1.0339177,0.76372087,-1.1561329,0.49644682,-1.5712538,-0.123091646,0.19436347,0.0,1.6575038,1.0339177,0.76372087,-1.1561329,0.49644682,-1.5712538,-0.123091646],9,19]],"dB":[[[2.4638582e26,5.278429e25,5.6503807e25,5.686543e25,1.899851e26,6.8439473e25,8.087588e25,5.518885e25,2.195282e25,8.544617e25,6.485199e25,1.6316881e26,1.1376787e26,6.618975e25,8.57569e25,1.1151593e26,5.9929123e25,2.3787754e25,250352290000.0],19,null],[[-9687.542,201606070000.0,-2845.6218,201606050000.0,201607230000.0,201607250000.0,201607270000.0,-2619.9307,-7903.0117,-3272.9978,201607270000.0,201607270000.0,201607000000.0,201606070000.0,201607250000.0,201607230000.0,-7038.8857,201607200000.0,201607270000.0],19,null],[[3009.3274,3008.762,3007.3896,3008.8574,1.6700138,3009.2056,3009.0967,3009.0933,3009.2517,3009.117,3009.1812,3008.9468,3009.0781,3009.148,3008.7092,3009.1611,3008.8638,3008.7827,3008.9338],19,null],[[0.19436347,0.0,1.6575038,1.0339177,0.76372087,-1.1561329,0.49644682,-1.5712538,-0.123091646],9,null]]}