{"node_count":[3,19,19,9],"input_data":[false,false,false,false,false,false,false,false,false,false,false,false,false,false,false,false,false,false],"alpha":0.1,"gamma":0.8,"weights":[[[7.1473165e32,5.809807e32,3.579167e30,-4.6508395e27,1.5266989e31,-2.1589987e18,-1.9583438e26,-1.2257102e30,3.7982515e29,-4.172026e31,2.2925723e30,-2.0389496e31,3.1048248e32,2.6259985e32,3.0148047e32,3.0052294e32,3.0597276e32,2.8657902e32,5.4517696e32,4.2658423e32,2.77026e30,-3.5928995e27,1.1806053e31,-1.667951e18,-1.5128299e26,-9.4704385e29,2.9337757e29,-3.2546827e31,1.7727342e30,-1.5662687e31,2.3810189e32,1.9969739e32,2.3034787e32,2.3010677e32,2.3407121e32,2.1849936e32,2.390607e30,3.1210212e30,1.116249e28,-1.8411922e25,4.3935283e28,-8.532424e15,-7.7516764e23,-5.068419e27,1.5104507e27,-1.8543592e29,6.0316627e27,-8.047627e28,1.1422853e30,1.2817592e30,1.1423878e30,1.2212659e30,1.0214485e30,1.20697325e30,-2.8008388e27,-2.7517492e27,-1.1040397e25,1.4493508e22,-5.9698815e25,9754707000000.0,7.814583e20,3.8050834e24,-1.4728316e24,1.634157e26,-6.994511e24,7.96015e25,-1.3223681e27,-8.757922e26,-1.00665425e27,-1.2771587e27,-1.2928069e27,-9.530325e26,1.1851686e31,1.0339198e31,5.636032e28,-7.825908e25,2.027036e29,-3.635908e16,-3.2944986e24,-2.0178967e28,6.350477e27,-7.094832e29,3.5181158e28,-2.9099836e29,4.9445538e30,4.7408153e30,4.9004536e30,4.8183265e30,4.7720014e30,5.0974605e30,-54580.72,-6507.966,4316.2417,-2905.2136,-23253.938,-15247.779,-16061.418,390.32645,-36066.97,-5472.215,-5976.119,-13246.164,-30696.344,-23116.092,-33402.29,-39909.65,-7371.42,-31926.96,-1.1466623e26,-1.1265121e26,-4.522071e23,7.6228244e20,-2.4589201e24,405795180000.0,2.5244745e19,1.5448347e23,-6.0957734e22,6.6937654e24,-2.9069161e23,3.260071e24,-5.4136536e25,-3.5564854e25,-4.1210317e25,-5.2285364e25,-5.3265845e25,-3.9015537e25,-1.0287121e30,-7.123681e29,-4.262668e27,6.337079e24,-2.6305902e28,2.9287473e15,2.6700154e23,1.3151221e27,-5.1202605e26,5.448575e28,-3.2653098e27,2.5368822e28,-4.58342e29,-2.0333403e29,-4.2285985e29,-4.445335e29,-4.530985e29,-4.2205765e29,4.0445747e29,2.2550819e29,1.5965796e27,-1.9744671e24,4.9341767e27,-9.145947e14,-8.378513e22,-5.4636902e26,1.2662249e26,-1.3418774e28,1.0051546e27,-6.522373e27,1.1399473e29,1.2544819e29,1.4015169e29,1.45279345e29,1.066305e29,1.3274962e29,-4.186855e31,-2.6986672e31,-1.6337178e29,2.1405297e26,-7.0317216e29,9.928819e16,9.017631e24,5.638454e28,-1.7524657e28,1.5115032e30,-1.0560048e29,9.347503e29,-1.5042365e31,-1.2398945e31,-1.4820033e31,-1.436788e31,-1.4939142e31,-1.3978872e31,1.3813282e30,1.7197964e30,4.00391e27,-1.1316602e25,1.4604171e28,-5.3696776e15,-4.8012775e23,-2.9304453e27,9.251279e26,-1.0210933e29,4.3230857e27,-4.342359e28,4.69861e29,1.664131e30,4.817637e29,6.757327e29,7.523464e29,8.566557e29,-1.7392526e31,-1.702278e31,-8.09238e28,1.0485716e26,-3.8432043e29,4.8510887e16,4.416285e24,2.7530218e28,-8.613344e27,9.3927265e29,-5.248627e28,3.6082393e29,-8.090355e30,-5.5515826e30,-7.3230754e30,-7.616269e30,-7.8062214e30,-6.3795825e30,2.6493992e32,2.1383853e32,1.3289388e30,-1.7271484e27,5.6581597e30,-8.0170554e17,-7.2724614e25,-4.5510753e29,1.4102651e29,-1.5556275e31,8.497717e29,-7.517896e30,9.855287e31,9.991667e31,1.1525957e32,1.1346132e32,1.1544157e32,1.0799568e32,2.19291e32,1.7249147e32,1.1119194e30,-1.4404832e27,4.745562e30,-6.690934e17,-6.0654356e25,-3.8025617e29,1.1762485e29,-1.300616e31,7.185755e29,-6.350878e30,9.878565e31,6.8645414e31,9.567374e31,9.407349e31,9.55877e31,8.903897e31,2.5689024e32,2.0532516e32,1.2873795e30,-1.6726963e27,5.484083e30,-7.7624476e17,-7.043143e25,-4.4083733e29,1.3661527e29,-1.5034694e31,8.231005e29,-7.3116106e30,1.1511811e32,9.665842e31,9.239218e31,1.0979824e32,1.1166111e32,1.0456834e32,2.5484158e32,2.049473e32,1.283424e30,-1.6667256e27,5.4600065e30,-7.739304e17,-7.0180324e25,-4.3909043e29,1.361063e29,-1.5031996e31,8.214225e29,-7.2648336e30,1.130627e32,9.507532e31,1.0959859e32,9.1842e31,1.1270617e32,1.0542205e32,2.6088577e32,2.092666e32,1.3068165e30,-1.699931e27,5.563962e30,-7.889506e17,-7.1576706e25,-4.479116e29,1.3879685e29,-1.5294262e31,8.3840985e29,-7.408207e30,1.1534303e32,9.689277e31,1.1175786e32,1.1297895e32,9.544145e31,1.0768002e32,2.4243056e32,1.9247768e32,1.21830716e30,-1.5814225e27,5.205228e30,-7.34324e17,-6.6588683e25,-4.1662973e29,1.29139005e29,-1.4220681e31,7.809407e29,-6.9480715e30,1.0725461e32,8.971161e31,1.040273e32,1.0513904e32,1.0714397e32,8.268261e31],18,18],[[1.9562857e16,1.9562872e16,1.9562857e16,1.9562857e16,1.9562852e16,1.9562857e16,1.9562857e16,1.9562857e16,1.9562854e16,1.9562857e16,1.9562852e16,1.9562852e16,1.9562857e16,1.9562857e16,1.9562859e16,1.9562857e16,1.9562857e16,1.9562857e16,1.9562859e16,1.5113408e16,1.5113412e16,1.5113408e16,1.5113408e16,1.5113406e16,1.5113408e16,1.5113408e16,1.5113408e16,1.5113406e16,1.5113408e16,1.5113406e16,1.5113406e16,1.5113408e16,1.5113408e16,1.5113408e16,1.5113408e16,1.5113408e16,1.5113408e16,1.5113408e16,7.7312935e13,7.731297e13,7.7312935e13,7.7312935e13,7.7312935e13,7.7312935e13,7.7312935e13,7.7312935e13,7.7312935e13,7.7312935e13,7.7312935e13,7.7312935e13,7.7312935e13,7.7312935e13,7.731296e13,7.7312935e13,7.7312935e13,7.7312935e13,7.731294e13,-88388200000.0,-88388250000.0,-88388200000.0,-88388200000.0,-88388190000.0,-88388190000.0,-88388200000.0,-88388200000.0,-88388190000.0,-88388200000.0,-88388190000.0,-88388190000.0,-88388200000.0,-88388200000.0,-88388200000.0,-88388200000.0,-88388200000.0,-88388200000.0,-88388190000.0,3.2945342e14,3.294536e14,3.294534e14,3.294534e14,3.2945335e14,3.294534e14,3.294534e14,3.294534e14,3.294534e14,3.2945342e14,3.294534e14,3.2945335e14,3.294534e14,3.294534e14,3.2945345e14,3.2945342e14,3.294534e14,3.294534e14,3.2945342e14,-22.910913,-24.258005,-22.90964,-24.482037,-22.87211,-23.16323,-27.859495,-20.338877,-22.902721,-20.660603,-25.400785,-20.997921,-19.327866,-21.804747,-34.717422,-21.425129,-17.44152,-20.29302,-27.682755,-3676947200.0,-3676949000.0,-3676947200.0,-3676947200.0,-3676946200.0,-3676947200.0,-3676947200.0,-3676947200.0,-3676947200.0,-3676947200.0,-3676946200.0,-3676946200.0,-3676947200.0,-3676947200.0,-3676947700.0,-3676947200.0,-3676947200.0,-3676947200.0,-3676947200.0,-2.6537603e13,-2.6537615e13,-2.6537603e13,-2.6537603e13,-2.6537596e13,-2.6537603e13,-2.6537603e13,-2.6537603e13,-2.65376e13,-2.6537603e13,-2.6537596e13,-2.6537596e13,-2.6537603e13,-2.6537603e13,-2.6537607e13,-2.6537603e13,-2.6537603e13,-2.6537603e13,-2.6537607e13,8287226000000.0,8287229000000.0,8287225000000.0,8287225000000.0,8287224000000.0,8287225000000.0,8287224000000.0,8287224000000.0,8287224000000.0,8287225000000.0,8287224000000.0,8287224000000.0,8287224000000.0,8287225000000.0,8287226000000.0,8287225000000.0,8287225000000.0,8287225000000.0,8287226000000.0,-8.9965895e14,-8.996593e14,-8.996589e14,-8.9965895e14,-8.996586e14,-8.996589e14,-8.996589e14,-8.996589e14,-8.996588e14,-8.9965895e14,-8.9965875e14,-8.996586e14,-8.996589e14,-8.996589e14,-8.9965895e14,-8.9965895e14,-8.9965895e14,-8.9965895e14,-8.9965895e14,4.8655113e13,4.865514e13,4.8655113e13,4.8655113e13,4.865506e13,4.865512e13,4.865512e13,4.8655113e13,4.8655092e13,4.8655113e13,4.865508e13,4.8655076e13,4.8655105e13,4.865512e13,4.865512e13,4.865512e13,4.86551e13,4.8655113e13,4.865512e13,-4.395616e14,-4.3956182e14,-4.395616e14,-4.395616e14,-4.3956158e14,-4.395616e14,-4.395616e14,-4.395616e14,-4.395616e14,-4.395616e14,-4.3956158e14,-4.3956158e14,-4.395616e14,-4.395616e14,-4.395617e14,-4.395616e14,-4.3956165e14,-4.395616e14,-4.395616e14,7.2643327e15,7.264335e15,7.264332e15,7.264332e15,7.264331e15,7.264332e15,7.264332e15,7.264332e15,7.264331e15,7.264332e15,7.264331e15,7.264331e15,7.2643327e15,7.264332e15,7.264333e15,7.264332e15,7.2643327e15,7.264332e15,7.264332e15,6.062701e15,6.0627055e15,6.0627007e15,6.0627007e15,6.0627e15,6.0627007e15,6.0627007e15,6.0627007e15,6.0627007e15,6.0627007e15,6.0627e15,6.0627e15,6.062701e15,6.0627007e15,6.062701e15,6.0627007e15,6.062701e15,6.0627007e15,6.0627007e15,7.033615e15,7.0336183e15,7.033615e15,7.033615e15,7.033613e15,7.033614e15,7.033615e15,7.033614e15,7.033614e15,7.033615e15,7.033613e15,7.033613e15,7.033614e15,7.033615e15,7.033615e15,7.033614e15,7.033615e15,7.033615e15,7.033614e15,7.0126374e15,7.012641e15,7.0126374e15,7.0126374e15,7.012635e15,7.0126374e15,7.0126374e15,7.0126374e15,7.0126374e15,7.0126374e15,7.012635e15,7.012635e15,7.0126374e15,7.0126374e15,7.0126385e15,7.0126374e15,7.0126374e15,7.0126374e15,7.0126374e15,7.1487336e15,7.1487385e15,7.1487336e15,7.1487336e15,7.148732e15,7.1487336e15,7.1487336e15,7.1487336e15,7.1487336e15,7.1487336e15,7.1487325e15,7.148733e15,7.1487336e15,7.1487336e15,7.1487347e15,7.1487336e15,7.1487336e15,7.1487336e15,7.1487347e15,6.653774e15,6.653777e15,6.653774e15,6.653774e15,6.6537725e15,6.653774e15,6.653774e15,6.653774e15,6.653774e15,6.653774e15,6.6537725e15,6.6537735e15,6.653774e15,6.653774e15,6.653775e15,6.653774e15,6.653774e15,6.653774e15,6.653774e15],19,18],[[104108530.0,104113450.0,104118740.0,104092700.0,104106090.0,104114790.0,104112250.0,104108440.0,104123150.0,104112720.0,104118456.0,104117656.0,104112696.0,104094136.0,104109530.0,104107820.0,104121784.0,104091790.0,104114700.0,104108550.0,104113464.0,104118750.0,104092770.0,104106104.0,104114840.0,104112264.0,104108460.0,104123170.0,104112740.0,104118470.0,104117670.0,104112700.0,104094184.0,104109540.0,104107850.0,104121800.0,104091860.0,104114730.0,104108530.0,104113450.0,104118740.0,104092700.0,104106090.0,104114790.0,104112250.0,104108440.0,104123150.0,104112720.0,104118456.0,104117656.0,104112690.0,104094136.0,104109520.0,104107820.0,104121780.0,104091790.0,104114700.0,104108530.0,104113450.0,104118740.0,104092700.0,104106090.0,104114790.0,104112250.0,104108440.0,104123150.0,104112720.0,104118456.0,104117656.0,104112690.0,104094136.0,104109520.0,104107820.0,104121780.0,104091790.0,104114700.0,104108520.0,104113440.0,104118730.0,104092670.0,104106080.0,104114776.0,104112230.0,104108424.0,104123144.0,104112710.0,104118456.0,104117640.0,104112690.0,104094120.0,104109520.0,104107816.0,104121770.0,104091780.0,104114696.0,104108530.0,104113450.0,104118740.0,104092700.0,104106090.0,104114810.0,104112240.0,104108440.0,104123150.0,104112720.0,104118456.0,104117656.0,104112690.0,104094136.0,104109520.0,104107820.0,104121780.0,104091790.0,104114700.0,104108530.0,104113450.0,104118740.0,104092700.0,104106090.0,104114790.0,104112240.0,104108440.0,104123150.0,104112720.0,104118456.0,104117656.0,104112690.0,104094136.0,104109520.0,104107820.0,104121780.0,104091790.0,104114700.0,104108530.0,104113450.0,104118740.0,104092700.0,104106090.0,104114790.0,104112240.0,104108440.0,104123150.0,104112720.0,104118456.0,104117656.0,104112696.0,104094136.0,104109520.0,104107820.0,104121780.0,104091790.0,104114700.0,104108520.0,104113440.0,104118740.0,104092690.0,104106080.0,104114790.0,104112240.0,104108430.0,104123150.0,104112710.0,104118456.0,104117656.0,104112690.0,104094120.0,104109520.0,104107816.0,104121780.0,104091790.0,104114696.0,104108530.0,104113450.0,104118740.0,104092700.0,104106090.0,104114810.0,104112250.0,104108440.0,104123150.0,104112720.0,104118456.0,104117656.0,104112696.0,104094136.0,104109520.0,104107820.0,104121784.0,104091790.0,104114700.0,104108520.0,104113440.0,104118730.0,104092690.0,104106080.0,104114776.0,104112240.0,104108424.0,104123144.0,104112710.0,104118456.0,104117640.0,104112690.0,104094120.0,104109520.0,104107816.0,104121770.0,104091780.0,104114696.0,104108520.0,104113440.0,104118730.0,104092670.0,104106080.0,104114776.0,104112230.0,104108430.0,104123150.0,104112710.0,104118456.0,104117640.0,104112690.0,104094120.0,104109520.0,104107816.0,104121780.0,104091780.0,104114696.0,104108530.0,104113450.0,104118740.0,104092700.0,104106090.0,104114790.0,104112250.0,104108440.0,104123150.0,104112720.0,104118456.0,104117656.0,104112696.0,104094136.0,104109530.0,104107820.0,104121780.0,104091790.0,104114700.0,104108530.0,104113450.0,104118740.0,104092700.0,104106090.0,104114790.0,104112240.0,104108440.0,104123150.0,104112720.0,104118456.0,104117656.0,104112690.0,104094136.0,104109520.0,104107820.0,104121780.0,104091790.0,104114700.0,104108536.0,104113450.0,104118740.0,104092720.0,104106090.0,104114810.0,104112250.0,104108450.0,104123150.0,104112730.0,104118456.0,104117656.0,104112690.0,104094150.0,104109520.0,104107820.0,104121784.0,104091820.0,104114710.0,104108530.0,104113450.0,104118740.0,104092700.0,104106090.0,104114810.0,104112250.0,104108440.0,104123150.0,104112720.0,104118456.0,104117656.0,104112696.0,104094136.0,104109520.0,104107820.0,104121780.0,104091790.0,104114700.0,104108530.0,104113450.0,104118740.0,104092700.0,104106090.0,104114790.0,104112250.0,104108440.0,104123150.0,104112720.0,104118460.0,104117656.0,104112696.0,104094136.0,104109530.0,104107820.0,104121784.0,104091790.0,104114700.0,104108530.0,104113450.0,104118740.0,104092700.0,104106090.0,104114790.0,104112250.0,104108440.0,104123150.0,104112720.0,104118456.0,104117656.0,104112690.0,104094136.0,104109520.0,104107820.0,104121780.0,104091790.0,104114700.0,104108530.0,104113450.0,104118740.0,104092700.0,104106090.0,104114810.0,104112250.0,104108440.0,104123150.0,104112720.0,104118456.0,104117656.0,104112690.0,104094136.0,104109520.0,104107820.0,104121780.0,104091810.0,104114700.0],19,19],[[2940.9429,906.2784,-3.0579839,-667.74115,1916.6656,-4.239148,27958.494,13458.99,9092.481,2944.3284,904.1759,-5.1095114,-665.51733,1913.9144,-2.2068198,27958.82,13459.682,9093.067,2943.996,902.78314,-7.9209366,-665.231,1911.9677,-2.8209355,27958.83,13461.893,9093.392,2946.798,900.916,5.06326,-668.97736,1926.9296,0.41236264,27952.691,13458.4,9098.712,2943.8892,903.6836,-4.7385435,-666.0579,1915.1072,-2.7681777,27957.879,13459.254,9092.392,2952.9575,900.5755,15.559169,-669.9212,1920.9271,-0.8067969,27956.213,13457.0625,9101.555,2943.5664,904.1141,-5.4801846,-666.053,1915.1147,-3.1072614,27958.672,13459.252,9093.44,2941.2717,905.88,-1.3750242,-667.987,1916.7725,-4.318037,27958.664,13458.92,9091.905,2944.4219,903.98193,-7.2921762,-665.31525,1912.72,-2.726802,27959.867,13461.115,9093.476,2943.7769,904.25653,-4.830474,-665.8899,1914.547,-2.6589453,27958.967,13459.455,9092.545,2944.1594,903.47156,-8.719636,-665.74896,1912.665,-2.9998887,27959.076,13461.4,9092.9375,2944.4504,903.85876,-5.9013815,-665.7181,1914.575,-2.548845,27959.434,13459.58,9093.538,2944.1672,904.0601,-9.2902155,-665.1621,1913.1078,-3.2512734,27958.465,13460.508,9092.818,2947.058,901.4691,2.5009239,-668.8334,1923.5457,-1.3382831,27952.45,13459.537,9099.178,2943.506,903.0289,-8.678647,-665.60406,1912.1476,-3.3753421,27958.705,13459.426,9092.353,2944.675,904.7371,-4.6009035,-666.02966,1915.8595,-2.7736828,27957.691,13459.6,9092.894,2944.6602,903.8314,-7.174799,-665.20624,1913.5188,-2.521694,27959.863,13460.76,9092.9795,2943.632,902.73517,2.6527164,-669.1485,1924.6353,-2.8054073,27952.824,13458.715,9098.637,2944.4153,903.73444,-5.177454,-666.0616,1914.6819,-2.8275335,27959.309,13459.408,9092.487],9,19]],"biases":[[[7.462991e32,6.107321e32,3.7053842e30,-4.8125634e27,1.5802138e31,-2.2341439e18,-2.0264058e26,-1.2683465e30,3.929901e29,-4.3579866e31,2.3733086e30,-2.1123307e31,3.2238715e32,2.7302176e32,3.1288993e32,3.1229517e32,3.1763536e32,2.9751423e32],18,null],[[2.0243697e16,2.024371e16,2.0243697e16,2.0243697e16,2.0243693e16,2.0243697e16,2.0243697e16,2.0243697e16,2.0243695e16,2.0243697e16,2.0243693e16,2.0243693e16,2.0243697e16,2.0243697e16,2.02437e16,2.0243697e16,2.0243697e16,2.0243697e16,2.0243697e16],19,null],[[104108470.0,104113384.0,104118680.0,104092610.0,104106024.0,104114680.0,104112190.0,104108376.0,104123096.0,104112660.0,104118410.0,104117590.0,104112640.0,104094056.0,104109470.0,104107770.0,104121720.0,104091730.0,104114640.0],19,null],[[2940.4573,902.2202,15.599415,-660.02203,1921.1787,-11.230344,27954.688,13456.393,9106.046],9,null]],"layers":[[[1.0,1.0,1.0,0.0,1.0,0.0,0.0,0.0,1.0,0.0,1.0,0.0,1.0,1.0,1.0,1.0,1.0,1.0],18,null],[[1.0,1.0,1.0,1.0,1.0,1.0,1.0,1.0,1.0,1.0,1.0,1.0,1.0,1.0,1.0,1.0,1.0,1.0,1.0],19,null],[[1.0,1.0,1.0,1.0,1.0,1.0,1.0,1.0,1.0,1.0,1.0,1.0,1.0,1.0,1.0,1.0,1.0,1.0,1.0],19,null],[[1.0,1.0,1.4650699e-21,0.0,1.0,3.5146584e-27,1.0,1.0,1.0],9,null]],"dW":[[[1.5177694e29,1.2292169e29,7.6211956e26,-8.719627e23,3.2416705e27,-2.2920823e14,-3.6273667e22,-2.618463e26,8.175919e25,-8.875302e27,4.8123704e26,-4.3419158e27,6.602818e28,5.638168e28,6.464012e28,6.2893875e28,6.437616e28,6.0876423e28,1.18137015e29,9.236188e28,6.0113637e26,-6.868377e23,2.555719e27,-1.8054534e14,-2.857245e22,-2.0621545e26,6.439758e25,-7.056135e27,3.7808458e26,-3.409381e27,5.155724e28,4.3678225e28,5.0193566e28,4.921792e28,5.039631e28,4.748949e28,1.1881962e26,2.7656681e26,8.2955195e23,-1.2059123e21,2.1789053e24,-316992060000.0,-5.016966e19,-4.70435e23,1.17350845e23,-1.6463244e25,2.9551814e23,-5.997101e24,1.1029569e26,1.2856089e26,6.34421e25,9.5562675e25,5.105732e25,8.235435e25,0.0,0.0,0.0,0.0,0.0,0.0,0.0,0.0,0.0,0.0,0.0,0.0,0.0,0.0,0.0,0.0,0.0,0.0,1.7247312e27,1.5194899e27,8.2543046e24,-1.0058094e22,2.9483925e25,-2643919600000.0,-4.1841656e20,-2.936487e24,9.430404e23,-1.03572685e26,4.9992556e24,-4.242786e25,7.15252e26,6.899023e26,7.34117e26,6.923619e26,7.011664e26,7.3882095e26,0.0,0.0,0.0,0.0,0.0,0.0,0.0,0.0,0.0,0.0,0.0,0.0,0.0,0.0,0.0,0.0,0.0,0.0,-7.3061523e22,-7.1771e22,-2.8874106e20,4.1974052e17,-1.564518e21,110335000.0,1.3732316e16,9.9110145e19,-3.9354617e19,4.2723268e21,-1.8171249e20,2.0874034e21,-3.4497073e22,-2.2642406e22,-2.626848e22,-3.3301818e22,-3.3948116e22,-2.4849892e22,-1.3210148e26,-1.2984163e26,-3.4810487e23,7.589268e20,-3.8635186e24,199495090000.0,3.1567592e19,1.7919956e23,-6.687134e22,7.724731e24,-3.28315e23,4.7632713e24,-6.1190087e25,-2.189789e25,-5.090332e25,-5.1170087e25,-6.1381107e25,-5.7155645e25,-3.678512e25,-3.6233422e25,-1.4487414e23,2.1133154e20,-7.8770595e23,55551627000.0,8.791389e18,4.972792e22,-1.5582928e22,2.1510369e24,-9.117318e22,1.0538207e24,-1.3647738e25,-1.140003e25,-1.6828414e25,-1.3140747e25,-1.7138635e25,-1.5908823e25,-8.0937454e27,-5.158456e27,-3.1626737e25,3.656888e22,-1.3586673e26,9612672000000.0,1.5212646e21,1.0979411e25,-3.4286761e24,2.9272854e26,-2.0130095e25,1.8281185e26,-2.8387665e27,-2.450394e27,-2.8602187e27,-2.8228515e27,-2.896714e27,-2.6113772e27,-1.7770088e27,-1.7601764e27,-9.5894534e24,1.0294098e22,-4.20087e25,2705956500000.0,4.2823054e20,3.0418998e24,-9.608838e23,1.0477837e26,-4.4564817e24,5.1685287e25,-8.346298e26,-2.4131162e26,-9.2896556e26,-7.891448e26,-1.0336162e27,-8.096289e26,-1.6504658e27,-1.6842512e27,-7.504556e24,8.5795977e21,-3.7669266e25,2255273900000.0,3.569111e20,2.635644e24,-8.044723e23,8.927563e25,-4.7772712e24,3.3555381e25,-8.276075e26,-4.9487696e26,-6.935022e26,-6.978312e26,-6.500846e26,-5.940699e26,5.4100025e28,4.334312e28,2.7390286e26,-3.1300403e23,1.16162276e27,-8.227775e13,-1.3020955e22,-9.398033e25,2.9351332e25,-3.2065538e27,1.72376e26,-1.5491827e27,2.0231173e28,2.0466566e28,2.3884622e28,2.287496e28,2.3598652e28,2.2578919e28,3.9404821e28,3.04289e28,2.0002498e26,-2.2801073e23,8.4987485e26,-5.993598e13,-9.485246e21,-6.858968e25,2.138238e25,-2.3294e27,1.2924325e26,-1.14070246e27,1.7537718e28,1.2299764e28,1.7166893e28,1.6538796e28,1.6930927e28,1.6059666e28,4.736372e28,3.7203703e28,2.3900996e26,-2.7365747e23,1.01691204e27,-7.193491e13,-1.1384151e22,-8.219841e25,2.565796e25,-2.7917896e27,1.4988094e26,-1.3602473e27,2.1434307e28,1.7928182e28,1.7126218e28,2.0026298e28,2.0438371e28,1.9701604e28,6.48078e28,5.2248116e28,3.254329e26,-3.720533e23,1.381809e27,-9.7799736e13,-1.5477407e22,-1.1173913e26,3.4887808e25,-3.7970102e27,2.049959e26,-1.8491767e27,2.8549017e28,2.4178583e28,2.7916203e28,2.3214665e28,2.881959e28,2.646754e28,6.2649506e28,5.0499622e28,3.1357325e26,-3.5906814e23,1.333195e27,-9.438633e13,-1.4937223e22,-1.0780625e26,3.366596e25,-3.6624387e27,1.9628819e26,-1.7883687e27,2.7766077e28,2.3348249e28,2.6905917e28,2.7240676e28,2.2839237e28,2.523897e28,4.8703017e28,3.887324e28,2.4773361e26,-2.8333412e23,1.05517604e27,-7.447855e13,-1.1786689e22,-8.506781e25,2.656524e25,-2.9030432e27,1.5571341e26,-1.4124641e27,2.2212314e28,1.8427776e28,2.1596343e28,2.0856157e28,2.0991183e28,1.6774216e28],18,18],[[2076876200000.0,2076876200000.0,2076876200000.0,2076876200000.0,2076876100000.0,2076876200000.0,2076876200000.0,2076876200000.0,2076876100000.0,2076876200000.0,2076876100000.0,2076876100000.0,2076876200000.0,2076876200000.0,2076876200000.0,2076876200000.0,2076876200000.0,2076876200000.0,2076876200000.0,1635938900000.0,1635939000000.0,1635938900000.0,1635938900000.0,1635938900000.0,1635938900000.0,1635938900000.0,1635938900000.0,1635938900000.0,1635938900000.0,1635938900000.0,1635938900000.0,1635938900000.0,1635938900000.0,1635938900000.0,1635938900000.0,1635938900000.0,1635938900000.0,1635938900000.0,2872287700.0,2872288800.0,2872288300.0,2872288300.0,2872287700.0,2872288300.0,2872288300.0,2872287700.0,2872287700.0,2872287700.0,2872287700.0,2872287700.0,2872287700.0,2872288300.0,2872287700.0,2872287700.0,2872289300.0,2872288300.0,2872288300.0,0.0,0.0,0.0,0.0,0.0,0.0,0.0,0.0,0.0,0.0,0.0,0.0,0.0,0.0,0.0,0.0,0.0,0.0,0.0,23956742000.0,23956754000.0,23956740000.0,23956740000.0,23956740000.0,23956740000.0,23956740000.0,23956742000.0,23956740000.0,23956742000.0,23956740000.0,23956740000.0,23956742000.0,23956740000.0,23956742000.0,23956742000.0,23956742000.0,23956740000.0,23956740000.0,0.0,0.0,0.0,0.0,0.0,0.0,0.0,0.0,0.0,0.0,0.0,0.0,0.0,0.0,0.0,0.0,0.0,0.0,0.0,-999753.6,-999753.8,-999753.6,-999753.6,-999753.44,-999753.6,-999753.6,-999753.6,-999753.44,-999753.6,-999753.44,-999753.44,-999753.6,-999753.6,-999753.6,-999753.6,-999753.6,-999753.6,-999753.6,-1807640200.0,-1807640700.0,-1807639800.0,-1807639800.0,-1807639700.0,-1807639800.0,-1807639800.0,-1807640200.0,-1807639700.0,-1807640200.0,-1807639700.0,-1807639700.0,-1807640200.0,-1807639800.0,-1807640200.0,-1807640200.0,-1807640200.0,-1807639800.0,-1807639800.0,-503357400.0,-503357570.0,-503357340.0,-503357340.0,-503357300.0,-503357340.0,-503357340.0,-503357400.0,-503357300.0,-503357400.0,-503357300.0,-503357300.0,-503357400.0,-503357340.0,-503357340.0,-503357400.0,-503357400.0,-503357340.0,-503357340.0,-87101130000.0,-87101140000.0,-87101110000.0,-87101110000.0,-87101104000.0,-87101110000.0,-87101110000.0,-87101130000.0,-87101104000.0,-87101130000.0,-87101104000.0,-87101104000.0,-87101130000.0,-87101110000.0,-87101130000.0,-87101130000.0,-87101110000.0,-87101110000.0,-87101110000.0,-24518873000.0,-24518850000.0,-24518873000.0,-24518873000.0,-24518859000.0,-24518873000.0,-24518873000.0,-24518873000.0,-24518859000.0,-24518873000.0,-24518859000.0,-24518859000.0,-24518873000.0,-24518873000.0,-24518873000.0,-24518873000.0,-24518873000.0,-24518873000.0,-24518873000.0,-20435210000.0,-20435220000.0,-20435206000.0,-20435206000.0,-20435206000.0,-20435206000.0,-20435206000.0,-20435210000.0,-20435206000.0,-20435210000.0,-20435206000.0,-20435206000.0,-20435210000.0,-20435206000.0,-20435210000.0,-20435210000.0,-20435206000.0,-20435206000.0,-20435206000.0,745524560000.0,745524760000.0,745524560000.0,745524560000.0,745524400000.0,745524560000.0,745524560000.0,745524560000.0,745524400000.0,745524560000.0,745524400000.0,745524400000.0,745524560000.0,745524560000.0,745524560000.0,745524560000.0,745524560000.0,745524560000.0,745524560000.0,543084200000.0,543084200000.0,543084200000.0,543084200000.0,543084180000.0,543084200000.0,543084200000.0,543084200000.0,543084150000.0,543084200000.0,543084180000.0,543084180000.0,543084200000.0,543084200000.0,543084200000.0,543084200000.0,543084200000.0,543084200000.0,543084200000.0,651807560000.0,651807700000.0,651807560000.0,651807560000.0,651807500000.0,651807560000.0,651807560000.0,651807560000.0,651807400000.0,651807560000.0,651807500000.0,651807500000.0,651807560000.0,651807560000.0,651807560000.0,651807560000.0,651807560000.0,651807560000.0,651807560000.0,886170650000.0,886170850000.0,886170650000.0,886170650000.0,886170600000.0,886170650000.0,886170650000.0,886170650000.0,886170600000.0,886170650000.0,886170600000.0,886170600000.0,886170650000.0,886170650000.0,886170650000.0,886170650000.0,886170650000.0,886170650000.0,886170650000.0,855241900000.0,855241900000.0,855241900000.0,855241900000.0,855241850000.0,855241900000.0,855241900000.0,855241900000.0,855241850000.0,855241900000.0,855241850000.0,855241850000.0,855241900000.0,855241900000.0,855241900000.0,855241900000.0,855241900000.0,855241900000.0,855241900000.0,674855650000.0,674855700000.0,674855650000.0,674855650000.0,674855500000.0,674855650000.0,674855650000.0,674855650000.0,674855500000.0,674855650000.0,674855500000.0,674855500000.0,674855650000.0,674855650000.0,674855650000.0,674855650000.0,674855650000.0,674855650000.0,674855650000.0],19,18],[[5532.018,5532.159,5532.314,5531.5356,5531.9653,5532.021,5532.1245,5532.012,5532.4194,5532.137,5532.3047,5532.262,5532.1577,5531.577,5532.0728,5531.9927,5532.384,5531.545,5532.1997,5532.018,5532.159,5532.314,5531.5356,5531.9653,5532.021,5532.1245,5532.012,5532.4194,5532.137,5532.3047,5532.262,5532.1577,5531.577,5532.0728,5531.9927,5532.384,5531.545,5532.1997,5532.018,5532.159,5532.314,5531.5356,5531.9653,5532.021,5532.1245,5532.012,5532.4194,5532.137,5532.3047,5532.262,5532.1577,5531.577,5532.0728,5531.9927,5532.384,5531.545,5532.1997,5532.018,5532.159,5532.314,5531.5356,5531.9653,5532.021,5532.1245,5532.012,5532.4194,5532.137,5532.3047,5532.262,5532.1577,5531.577,5532.0728,5531.9927,5532.384,5531.545,5532.1997,5532.018,5532.159,5532.314,5531.5356,5531.9653,5532.021,5532.1245,5532.012,5532.4194,5532.137,5532.3047,5532.262,5532.1577,5531.577,5532.0728,5531.9927,5532.384,5531.545,5532.1997,5532.018,5532.159,5532.314,5531.5356,5531.9653,5532.021,5532.1245,5532.012,5532.4194,5532.137,5532.3047,5532.262,5532.1577,5531.577,5532.0728,5531.9927,5532.384,5531.545,5532.1997,5532.018,5532.159,5532.314,5531.5356,5531.9653,5532.021,5532.1245,5532.012,5532.4194,5532.137,5532.3047,5532.262,5532.1577,5531.577,5532.0728,5531.9927,5532.384,5531.545,5532.1997,5532.018,5532.159,5532.314,5531.5356,5531.9653,5532.021,5532.1245,5532.012,5532.4194,5532.137,5532.3047,5532.262,5532.1577,5531.577,5532.0728,5531.9927,5532.384,5531.545,5532.1997,5532.018,5532.159,5532.314,5531.5356,5531.9653,5532.021,5532.1245,5532.012,5532.4194,5532.137,5532.3047,5532.262,5532.1577,5531.577,5532.0728,5531.9927,5532.384,5531.545,5532.1997,5532.018,5532.159,5532.314,5531.5356,5531.9653,5532.021,5532.1245,5532.012,5532.4194,5532.137,5532.3047,5532.262,5532.1577,5531.577,5532.0728,5531.9927,5532.384,5531.545,5532.1997,5532.018,5532.159,5532.314,5531.5356,5531.9653,5532.021,5532.1245,5532.012,5532.4194,5532.137,5532.3047,5532.262,5532.1577,5531.577,5532.0728,5531.9927,5532.384,5531.545,5532.1997,5532.018,5532.159,5532.314,5531.5356,5531.9653,5532.021,5532.1245,5532.012,5532.4194,5532.137,5532.3047,5532.262,5532.1577,5531.577,5532.0728,5531.9927,5532.384,5531.545,5532.1997,5532.018,5532.159,5532.314,5531.5356,5531.9653,5532.021,5532.1245,5532.012,5532.4194,5532.137,5532.3047,5532.262,5532.1577,5531.577,5532.0728,5531.9927,5532.384,5531.545,5532.1997,5532.018,5532.159,5532.314,5531.5356,5531.9653,5532.021,5532.1245,5532.012,5532.4194,5532.137,5532.3047,5532.262,5532.1577,5531.577,5532.0728,5531.9927,5532.384,5531.545,5532.1997,5532.018,5532.159,5532.314,5531.5356,5531.9653,5532.021,5532.1245,5532.012,5532.4194,5532.137,5532.3047,5532.262,5532.1577,5531.577,5532.0728,5531.9927,5532.384,5531.545,5532.1997,5532.018,5532.159,5532.314,5531.5356,5531.9653,5532.021,5532.1245,5532.012,5532.4194,5532.137,5532.3047,5532.262,5532.1577,5531.577,5532.0728,5531.9927,5532.384,5531.545,5532.1997,5532.018,5532.159,5532.314,5531.5356,5531.9653,5532.021,5532.1245,5532.012,5532.4194,5532.137,5532.3047,5532.262,5532.1577,5531.577,5532.0728,5531.9927,5532.384,5531.545,5532.1997,5532.018,5532.159,5532.314,5531.5356,5531.9653,5532.021,5532.1245,5532.012,5532.4194,5532.137,5532.3047,5532.262,5532.1577,5531.577,5532.0728,5531.9927,5532.384,5531.545,5532.1997,5532.018,5532.159,5532.314,5531.5356,5531.9653,5532.021,5532.1245,5532.012,5532.4194,5532.137,5532.3047,5532.262,5532.1577,5531.577,5532.0728,5531.9927,5532.384,5531.545,5532.1997],19,19],[[0.043896887,0.0052382685,-0.024299998,0.010000001,0.057356164,0.0050000004,0.7449314,0.3683458,0.23259299,0.043896887,0.0052382685,-0.024299998,0.010000001,0.057356164,0.0050000004,0.7449314,0.3683458,0.23259299,0.043896887,0.0052382685,-0.024299998,0.010000001,0.057356164,0.0050000004,0.7449314,0.3683458,0.23259299,0.043896887,0.0052382685,-0.024299998,0.010000001,0.057356164,0.0050000004,0.7449314,0.3683458,0.23259299,0.043896887,0.0052382685,-0.024299998,0.010000001,0.057356164,0.0050000004,0.7449314,0.3683458,0.23259299,0.043896887,0.0052382685,-0.024299998,0.010000001,0.057356164,0.0050000004,0.7449314,0.3683458,0.23259299,0.043896887,0.0052382685,-0.024299998,0.010000001,0.057356164,0.0050000004,0.7449314,0.3683458,0.23259299,0.043896887,0.0052382685,-0.024299998,0.010000001,0.057356164,0.0050000004,0.7449314,0.3683458,0.23259299,0.043896887,0.0052382685,-0.024299998,0.010000001,0.057356164,0.0050000004,0.7449314,0.3683458,0.23259299,0.043896887,0.0052382685,-0.024299998,0.010000001,0.057356164,0.0050000004,0.7449314,0.3683458,0.23259299,0.043896887,0.0052382685,-0.024299998,0.010000001,0.057356164,0.0050000004,0.7449314,0.3683458,0.23259299,0.043896887,0.0052382685,-0.024299998,0.010000001,0.057356164,0.0050000004,0.7449314,0.3683458,0.23259299,0.043896887,0.0052382685,-0.024299998,0.010000001,0.057356164,0.0050000004,0.7449314,0.3683458,0.23259299,0.043896887,0.0052382685,-0.024299998,0.010000001,0.057356164,0.0050000004,0.7449314,0.3683458,0.23259299,0.043896887,0.0052382685,-0.024299998,0.010000001,0.057356164,0.0050000004,0.7449314,0.3683458,0.23259299,0.043896887,0.0052382685,-0.024299998,0.010000001,0.057356164,0.0050000004,0.7449314,0.3683458,0.23259299,0.043896887,0.0052382685,-0.024299998,0.010000001,0.057356164,0.0050000004,0.7449314,0.3683458,0.23259299,0.043896887,0.0052382685,-0.024299998,0.010000001,0.057356164,0.0050000004,0.7449314,0.3683458,0.23259299,0.043896887,0.0052382685,-0.024299998,0.010000001,0.057356164,0.0050000004,0.7449314,0.3683458,0.23259299],9,19]],"dB":[[[1.5871303e29,1.2937476e29,7.898916e26,-9.033023e23,3.3589216e27,-2.3744633e14,-3.757739e22,-2.7125537e26,8.469745e25,-9.27377e27,4.9845176e26,-4.5013007e27,6.8745883e28,5.8619127e28,6.7231094e28,6.536339e28,6.685645e28,6.3444876e28],18,null],[[2151518400000.0,2151518400000.0,2151518400000.0,2151518400000.0,2151518400000.0,2151518400000.0,2151518400000.0,2151518400000.0,2151518400000.0,2151518400000.0,2151518400000.0,2151518400000.0,2151518400000.0,2151518400000.0,2151518400000.0,2151518400000.0,2151518400000.0,2151518400000.0,2151518400000.0],19,null],[[5532.018,5532.159,5532.314,5531.5356,5531.9653,5532.021,5532.1245,5532.012,5532.4194,5532.137,5532.3047,5532.262,5532.1577,5531.577,5532.0728,5531.9927,5532.384,5531.545,5532.1997],19,null],[[0.043896887,0.0052382685,-0.024299998,0.010000001,0.057356164,0.0050000004,0.7449314,0.3683458,0.23259299],9,null]]}